-1.1183145,0.17889857,0.92982626,1.2502933,-0.017004658,0.9679091,1.0403402,0.10307661,1.4246157,0.1820228,1.1798548,-0.9455206,0.32866767,0.11758414,-0.45401892,3.4841092,3.1135943,1.1151886,0.54105884,-1.124801
-1.1859823,-0.9809911,0.25692937,-1.0644763,0.16833757,-0.15169826,1.8069336,-0.48270264,-1.321669,0.70666206,4.3211446,-1.6263205,0.5517338,-0.0767,0.13407652,0.82747334,4.510972,2.545106,0.84061366,-1.0629272
0.5563467,1.7338167,0.94166684,0.24886894,0.79573566,0.39445257,0.6478955,-0.77151954,-0.41774663,1.3271773,-1.2122848,-1.02305,0.08738872,4.0055704,0.25293595,0.6437189,0.017551485,-0.1219729,2.9225674,-1.3994495
0.059919246,0.63098615,0.8201745,0.711134,0.4206886,0.5053337,1.472271,-0.28158075,-1.1587381,1.8035095,2.4420092,-0.07521743,0.048943345,0.04033722,0.38023454,3.1336088,1.9967833,0.6258053,2.4769506,-0.83276534
-1.225838,-0.3728064,1.6586838,-0.2824936,-0.41200733,1.8883488,0.88809544,1.5372119,1.6863115,1.4228839,1.2132614,-0.33356196,-0.5782447,0.7048518,1.1826189,2.3577464,0.56934816,1.4047143,1.4051042,-0.12751207
-2.0494874,-2.784916,-8.757895,-5.4974127,-11.449978,-8.991231,-2.920991,-5.7008524,-2.4092543,1.0704801,-0.08246081,1.7014155,1.6285232,2.7171147,2.8829186,-0.1696549,1.12394,1.917618,-1.638939,-1.9348736
-0.06188772,-1.0509777,-1.2159351,-0.2641452,-1.5215605,1.355305,0.2583254,-0.42882475,-1.1273857,1.203218,1.9118655,1.6113325,-0.19182935,1.2975643,-1.3366075,3.2762606,3.5124063,0.744704,2.0683362,0.97645235
-0.46660012,0.784719,0.3086953,-0.6494564,-1.3209815,-1.0442294,0.54516864,0.21485965,-0.22159123,0.97494835,-0.5031437,-1.0039657,-1.2752845,1.5444788,-0.15308763,1.8369583,3.6384888,0.21625176,1.8489095,-1.9443817
1.151387,0.3653558,1.352653,2.1906443,1.0501015,0.9081822,-1.1806836,1.1677985,-3.3218334,4.1638527,-0.020424139,-1.1499485,-1.2054796,-0.101457596,0.47454193,4.0316124,3.84587,0.8359705,2.1584673,-1.0484375
-1.0355316,-0.28793418,-0.1328263,-1.1693664,1.321607,-0.42946297,-0.07917287,1.7969601,0.22877367,0.8720952,-1.3260655,0.8605055,-1.0834568,-0.5802301,-0.9317862,3.6730747,1.950852,0.23776132,2.2006164,-0.73300123
-0.81021655,-1.0995883,-0.62479,-0.6113793,-1.5299137,4.0857778,1.8259194,0.30414033,-0.46006063,1.3071995,-0.35673773,-0.5777379,-3.1834145,-1.3490928,2.4444356,1.7097883,1.5302551,0.7730107,-0.22359967,0.31007895
-0.9075869,0.44595963,1.0894645,-3.1497104,-0.3476832,1.5219587,-0.27974537,0.60926807,-1.1314005,0.38531202,-1.1573116,-1.4935321,-2.5254192,1.2739716,-0.50556386,3.7963428,2.1650548,-0.8613399,1.5730739,0.8451157
-0.9234725,0.35358098,1.1100081,0.924072,0.38570014,-0.22147714,-0.77438766,0.28111827,0.57606614,1.6236638,1.9546026,-1.8056395,-1.2819912,0.8267938,-0.48199505,2.943312,1.673461,0.19989575,3.5711913,-0.28982
-1.1752787,-0.48500198,-1.4470555,-4.978005,-7.3738885,-5.4849606,-4.1782293,0.89897907,3.697926,0.0448429,-1.5330352,2.2622385,0.83391535,3.1740596,2.0568683,0.7589441,0.17155604,0.18453309,-0.38142544,-3.4193547
-0.44187358,-0.39887643,1.2987603,0.31244895,-1.7573708,0.19713552,-0.422237,0.36287892,1.0039467,1.1104228,-1.5411161,0.29653093,-0.7827343,0.079642706,1.9681169,4.5292177,2.0029075,-0.57338554,1.0385997,-1.0757703
-0.47632226,0.9566779,-0.18602733,-0.49879384,-0.8610522,0.32862446,0.52677304,-0.26452208,1.4608883,0.78736967,0.677037,-1.2426057,1.6605645,-0.22277017,-0.37151656,1.8699795,1.270131,-0.12542138,2.3832834,-1.0262172
0.019058576,0.4990832,0.43596762,-0.84836376,-1.2047704,0.3471938,0.021447267,0.70566696,0.31113374,1.3146576,0.4845359,-0.2593988,-2.6469724,0.06590659,-0.198601,0.6160417,1.4143897,-0.55005467,1.2379847,0.6151328
-2.6279862,-0.6771942,0.67258084,1.4432471,0.48314157,-0.6636867,-1.0905565,-1.3213148,-1.373821,2.3427615,4.710367,0.23179604,0.5307617,0.6270727,0.12191854,2.156109,1.7585092,1.9165995,0.3087775,-0.11152082
-0.7580103,0.41040623,0.8708425,0.26628977,1.4795989,1.0141449,1.5222476,0.36159125,0.85782605,2.7099795,-0.69449276,-2.0364473,0.8485424,2.113066,2.887981,1.5334331,3.603738,0.87331325,1.6830835,-0.75218594
-1.0119575,0.7682824,1.011999,1.0662467,0.618044,-1.5288377,1.1922648,0.5798538,-1.3725663,1.2593211,-0.3999289,1.0883182,-3.4006135,0.8130556,-0.5215185,3.366033,2.1771426,0.267743,1.3008028,-1.0795515
-1.1512659,-0.022366807,0.18440509,0.45754793,-1.0443702,-1.3963921,-0.7104522,0.49387315,2.580328,-0.3572332,-1.2547309,-1.9446318,-1.9609021,-1.7048461,-1.7888223,1.3617332,-0.25410038,3.9969497,1.5315392,-1.032363
-0.4096783,0.057363946,0.29580465,0.079434216,0.49902904,-0.7418623,1.8848333,1.3083125,2.573741,0.97158325,1.1911583,-0.04270561,0.09575955,-0.04662081,-0.8971816,2.3378851,2.5662756,-0.92980975,0.62057984,-1.5835117
-0.5458585,-0.5832361,0.41909954,0.2359532,-1.583991,-0.8696172,-0.4525547,1.7858378,3.6660457,0.938896,2.4500794,-0.0853515,2.2882943,0.12218327,0.55365366,2.490215,3.8574636,0.6413472,2.68587,-1.1441343
-0.5570597,1.1252573,0.7884427,-0.406501,-2.934939,-3.3645751,-0.32432762,0.77372444,-1.4930376,0.96690434,-1.3007729,-1.2855622,-1.1382735,-0.14501941,-5.225722,3.1160653,3.2110431,1.1427037,4.204839,-0.5622603
-0.98175055,-0.53498125,1.0392208,0.05987131,1.9535102,-0.19889598,0.7937676,0.30165824,-0.17169784,3.5272331,1.1639186,0.23944624,-0.24938579,-0.9524503,-0.9724843,0.02625769,1.6537625,-0.37520057,0.45146623,-0.80925566
0.2830336,-1.8365641,-0.20624083,-2.6616178,-0.90846294,-1.1787685,-1.3552332,-1.8088126,0.42340812,3.7395954,0.4696769,2.984462,0.57716715,1.0912274,4.139961,-0.785081,-1.1858889,0.8822205,1.324592,-1.3894222
-1.0236056,-1.4437526,0.13373548,0.03103955,0.75532824,0.80885273,1.6456813,0.8412238,1.2024361,3.0367925,-0.1316631,1.4369203,-0.07445558,1.307218,-0.20242469,2.1090865,3.3782072,-1.0286051,1.1100289,-0.6169241
1.0294837,-0.63779014,-0.50974447,-1.8343672,-1.7481841,-1.2987806,-0.9851552,1.8897867,1.3117471,1.7316961,-0.08366346,-1.6572487,-0.2826638,0.74899596,0.57823586,4.678474,0.11943971,3.4339242,1.1590185,0.4022119
0.33221206,0.61742663,1.794112,0.18642394,1.587069,1.3863674,0.4687647,0.10830919,-1.0258844,0.18471971,1.022942,-0.041409913,-2.2474167,-0.4700586,-0.91159326,1.195417,0.65219873,-0.35650215,2.1259775,-0.45670116
0.105488576,-1.0694534,0.5497217,0.82158625,0.55462205,2.8986835,1.9843365,0.36126086,0.78799814,1.4265212,-0.0056167785,0.68047863,0.07241449,-0.03774996,-0.55412537,0.741779,2.3827271,0.22614495,0.64828223,0.39159092
-0.24354339,-0.9011287,-0.72959214,-1.2879676,-2.4742243,-2.0754654,-1.0048852,0.9922296,0.22832982,0.9031077,-1.9401425,-1.7726471,-0.9750732,-0.68818027,-2.0173848,0.10324134,-0.9008718,3.693158,4.343304,0.48750144
-1.5920578,-0.25209418,1.7371856,1.0900459,-0.19760135,-0.9269896,2.6427524,-1.1548002,1.3129064,0.6977409,0.5208079,0.48285934,0.5825657,1.2810864,0.21648249,2.516332,2.7270277,0.16718318,0.40993497,-0.86429626
-0.013787563,0.6725188,0.10975012,-1.5741062,-4.476081,-1.6448861,-0.98420465,1.1165286,1.5971881,3.198727,0.18016466,-3.1737192,-0.08248084,2.9881747,0.9359099,2.6335347,3.3981333,-0.07682204,3.0419476,1.0770099
-0.11599592,1.1587049,-0.6901859,-0.09597412,-5.9919243,-7.643053,-4.5873494,-4.2856035,-1.7134407,-3.164371,-7.546193,-2.5684283,-4.25974,-6.6101775,-6.21359,1.3557144,2.5588257,4.4843044,0.67425483,-1.6968765
-0.5129371,-0.7250265,-0.34516352,-2.6297858,-0.37296852,1.6425855,1.6039407,1.3820856,-0.21372241,0.00896818,1.8685039,2.108725,0.8936434,0.8229719,0.69495684,2.126987,-0.5833768,0.0675708,1.7892828,0.53078204
0.14807571,0.85990214,-0.37109494,-0.6644431,-1.5549939,0.9224939,0.6255372,-0.15389442,0.15129611,0.2633673,0.18931589,-0.72734433,-2.527926,-2.5486927,-1.0798646,3.2475555,2.8919566,3.2824044,2.0462317,-0.8850517
0.040994804,-1.0638683,-0.85307723,1.2915384,0.4211652,-1.3144921,-0.65478015,-0.7809853,-1.1330355,1.491708,2.4063306,-1.2074875,-1.4973899,-0.71145177,0.41374615,0.721299,0.42059827,1.1170354,3.011297,-1.2737557
-0.76543754,0.30271164,0.869565,-1.912807,-0.51599234,-0.44385055,1.4289703,0.59516966,1.7225267,-0.7786485,1.8221165,-1.6433957,-2.1520262,0.8465408,-0.61979604,1.7683347,3.8688023,1.338216,1.2158012,0.37534535
-0.906106,-0.11753601,0.9118529,-0.7622351,2.410804,0.89310575,1.5897452,1.7901707,1.3771623,-0.59836066,1.2578516,1.1731536,-1.0697558,1.2882415,-0.66164833,0.6476649,2.4614816,1.2764094,0.4698423,0.16138145
0.27658978,0.53064173,1.0518137,-1.3458637,-0.68062097,0.76811695,0.31497282,0.25957614,-0.10676031,0.5371098,-1.8845243,-1.0533001,0.22187907,2.0803645,-1.463475,3.0647156,3.2415218,-0.26337552,1.0213379,-2.1729112
-0.47918653,-0.38455543,0.6866932,-0.8344066,-1.1518259,-1.5571003,2.350702,1.4232635,0.48310065,3.6827335,2.2908485,-0.22186507,0.44018754,0.7704572,-1.5128887,0.43653435,3.0195,0.8598329,1.0035837,-0.093340464
0.36316487,-0.5426015,-1.0821828,-2.3542173,-4.65151,-5.500821,-4.069493,-2.3315408,3.0779493,2.9818835,1.8590453,-2.0120404,0.84479475,2.5665503,3.4447515,1.377168,1.4752682,1.2475061,1.8016629,-0.1892986
-0.1959174,0.570413,0.5986958,0.9248071,1.3999542,0.29841456,0.6925871,1.5140452,1.0961922,2.1879787,0.91091263,-1.8967338,0.4637406,-0.55371356,-0.62548053,1.9831026,2.2126853,0.33648625,-0.10037786,-0.49154407
-2.328705,-0.8666227,-0.15858272,0.32808188,2.2588716,0.6579702,1.2721276,-0.37552515,-0.9081687,1.6420631,0.3183083,-0.5321115,0.13049707,0.5288003,-0.9183934,1.9662175,-0.7313864,-1.8707341,0.19630131,0.03352055
-3.4108562,-2.0290124,0.2981969,-0.85006744,0.71366715,0.3309185,-1.6180558,-1.7563646,-4.663617,-1.7199471,-3.9157271,-2.7169647,-2.7846682,-2.6723573,-1.8461657,-4.4739656,-3.54123,-3.8945415,-4.638251,-0.7463273
0.1335398,1.0745128,1.1308979,1.2921071,1.1424148,2.4574387,0.8516428,-0.7478543,-1.330911,3.639519,0.7007965,-1.5203252,-0.006456819,-0.6448722,-1.5834819,2.8280816,0.8174895,-0.60989904,-1.0492277,-0.18952747
-1.3869817,-0.83604336,-1.1870432,-1.0426844,-0.3238099,-0.4846944,0.7167043,-0.4769582,2.5197241,2.5401702,0.41269016,-2.1289036,0.9703624,1.0774682,-0.20283456,2.0680568,2.8873827,-2.1965594,1.1743869,0.20478055
-0.60333717,0.34983236,-0.17768382,-3.258387,-4.667863,-0.64206815,1.3700635,3.7530372,-1.0674614,2.60894,2.0411243,-1.2298754,-1.4421997,-0.72761285,-0.88068783,-0.7043469,0.755558,-0.61098427,-0.10502003,-1.3899798
0.4661959,1.6691098,0.5843855,-0.8192678,-0.7200758,0.7061958,1.6312667,0.09488773,-0.92727214,1.3876003,-0.030574827,-2.213659,-0.99971205,1.696353,-0.60087353,-0.35966524,3.1430004,3.6862953,3.107757,-2.2845078
0.1339882,0.0005925774,0.37467527,-1.1050874,0.64605474,-0.771405,1.3794256,-0.46444318,-1.2150481,4.834287,2.348116,-0.5477849,-0.20137809,0.7683704,3.1698482,0.7434583,1.279546,1.8307304,1.1397464,1.01878