-1.1481851,0.33431178,0.89630955,1.4931005,-0.44159597,0.37647462,0.008224444,-1.2915574,-0.074714236,-1.1130732,-1.8657416,-1.3779984,-0.7015839,-2.145065,-2.3429754,-0.68464845,-0.4682531,-0.95517164,-4.0277576,-1.2818772
-1.3474191,-1.0340441,1.9414765,-0.74763817,2.4063318,-2.434994,4.1842866,-2.9840107,-2.563229,0.711235,5.575262,-3.7392707,1.4379536,-1.663127,-1.4948759,-1.386667,2.9099483,1.8809155,-1.6330919,-1.4731661
0.7408956,1.6954427,0.8860695,0.23686947,0.49989074,-0.09200375,-0.16557975,-2.3814096,-3.0152855,-2.4777448,-2.3124516,-1.2024158,-0.5948051,5.84636,-0.74256414,-2.6217053,-2.8261688,-3.3048885,0.5763602,-1.528928
0.06653849,0.6338452,0.8420566,0.7794254,0.33947125,0.33016533,1.0248367,-0.56642896,-1.5952393,0.6656032,3.5547688,-0.12234985,-0.09626436,-0.16010343,0.24567188,2.5514946,-0.38170183,0.26193613,2.1626632,-0.83884996
-1.2381632,-0.22878793,1.6389744,-0.37568226,-1.2089933,1.8420037,0.0021937666,0.8561767,0.8364113,-0.31306988,-1.3167672,-0.6622826,-1.4721637,-0.9241151,0.69114184,-0.43594304,-0.111854024,0.019589284,-0.263553,-0.23657252
-2.088973,-2.8517594,-8.808417,-5.6149545,-10.967467,-9.164651,-2.3008938,-6.0332537,-2.0816958,1.3535556,-0.2886311,2.575913,1.4118083,2.1963825,1.8320197,-0.4823663,0.8554845,0.3850372,-2.1501248,-2.415276
-0.10209664,-2.470145,-1.9377959,1.5673372,-3.3129728,1.2985474,-5.6089725,-2.7972775,-1.4104524,-0.6737518,2.1033354,0.7766471,-4.616819,-2.6177218,-3.1662958,-0.10603157,1.4442344,-1.746103,-0.74944925,2.4184334
-0.4136502,0.7796168,0.29375848,-0.6541735,-1.46095,-1.2183456,0.51149535,-0.50031984,-1.18862,-0.27506503,-1.0737981,-1.062395,-1.4026114,3.1441715,-0.4218929,-0.2971131,1.9744682,-1.0564517,0.69915324,-1.9494559
1.3106883,0.34372574,1.3689419,2.195154,0.9653141,0.633937,-2.3564188,-0.6959496,-6.078208,2.352469,-1.4028385,-1.3743013,-1.8160728,-1.9621638,-0.46905088,0.8616668,2.3399343,-1.271243,0.88996595,-1.0368506
-1.1222703,0.102608755,-0.25397348,-0.85636467,3.3815973,-1.6943935,-2.6416655,4.191038,-2.084797,-1.9557296,-6.2201643,-0.06118559,-4.225628,-2.9787889,-4.1515136,3.3696272,-1.3798581,-3.04449,0.9034915,-1.1022474
-0.9166023,0.6197901,2.9763904,-0.8736327,-1.7223521,5.0294366,-1.8682408,-1.4168977,-2.645996,-2.177131,-7.659545,-4.3576374,-6.568958,-3.5734081,0.87850404,-4.5952115,-8.76781,-4.9995575,-2.256508,-0.84390885
0.06463494,0.22150491,-2.6182077,-3.179138,0.48439032,-1.7930725,-5.0291147,-5.5889397,-4.0941916,-5.0177727,-10.766193,-4.240424,-4.2704515,0.06772506,-3.8441215,2.1081464,-5.627075,-3.385512,-1.4450666,2.5648525
-0.9373168,0.52628577,1.07861,0.8508357,-0.2841516,-0.646273,-1.9093443,-0.79395413,0.25268072,-0.28215337,0.97755045,-2.0782201,-2.3987994,-1.6737741,-2.587025,-1.0456572,-4.189428,-0.8793434,5.3172297,-0.37138417
-1.1681981,-0.49788582,-1.5211779,-5.0393195,-7.2391253,-5.505007,-4.2007313,1.694638,3.5305665,-0.0044391416,-1.7462375,3.1235,0.44023025,2.2328458,0.90821356,0.2799389,-0.25157908,-3.0099885,-3.8932626,-3.620935
-0.762198,1.8518943,0.98444897,-1.2468748,-5.309337,-1.2089822,-4.08767,-4.7754664,-3.0841274,-4.2542405,-4.8317466,-1.5045705,-0.8738439,1.6943882,2.2065918,3.417662,-1.0039573,-1.6568373,-0.01694187,-1.383917
-0.47036296,0.9475441,-0.25825778,-0.49760073,-0.91609704,0.30925846,-0.9142211,-2.3632133,-0.76628906,-0.05273426,0.15397553,-1.3355612,4.531336,0.5721008,-0.6527292,0.19360845,-4.094212,-0.43841067,2.6276386,-1.0342946
0.048315942,0.47680542,0.3877314,-0.8962975,-1.2237381,-1.7646953,-0.41220096,0.5748874,-1.4733335,0.21576518,-0.63495,-0.31844035,-2.75728,-0.6033289,-0.29787555,-2.0823448,-2.0221457,-0.9480912,1.0943754,0.86574334
-2.6644034,-0.3307899,0.618894,1.3476362,0.13616952,-1.0188807,-3.1790693,-1.6669827,-3.3316073,5.3906617,7.6153965,-0.4715295,-1.8771129,-2.4810789,-4.9838676,-1.2954975,-7.0949483,-1.2153461,-1.7442468,-0.38325527
-0.91673785,1.6109425,0.50240725,-0.26288265,-0.0880062,-2.231411,-4.722223,-3.162949,-5.3365774,-3.4421601,-5.6390657,-3.929163,2.6094506,0.24649781,3.859083,-9.465727,-3.994052,-1.0819422,-3.2739065,-1.8944155
-1.0134395,0.84945506,0.99962074,1.042841,0.5197326,-1.6662843,0.4457737,-0.3612724,-2.5958095,-1.0163463,-1.7980219,1.0522162,-4.444586,-0.7010396,-2.2097194,0.2868736,-1.8907667,-1.2207341,-1.6141374,-1.1488829
-1.143761,0.032973737,0.1673577,0.42172748,-1.339838,-1.829919,-0.85727924,2.3094628,2.9499052,-1.5922158,-2.6696746,-2.3683753,-3.8455555,-4.0022926,-4.3359995,1.9502513,-3.3601747,4.3178225,-3.3580453,-0.9647108
-0.40735224,0.08122149,0.3810114,0.08331934,0.6861186,-1.0321971,2.501598,1.1552643,2.5005922,0.4115944,0.5575364,-0.067736365,0.03237469,-0.16530116,-1.0222615,1.3650047,1.1068867,-1.0964652,-0.44617087,-1.5925202
-0.7932494,-0.5429488,1.987118,0.90901566,-1.1710827,-0.62481976,1.3627843,4.7723293,3.552569,-0.6351958,0.18532081,-1.7274389,4.1831684,-3.5595095,-3.074043,-0.6788928,2.4494677,-3.52282,-3.6382685,-1.5457299
-0.23503293,0.92593765,-0.38562694,-1.0207963,-8.319234,-4.534931,1.4211816,1.3378721,-4.074811,-0.3490701,-2.8753176,1.2387769,-1.3874247,1.9596899,-4.740043,3.7600818,6.064584,-1.3969717,5.3390107,-0.25127023
-0.9736321,-0.52811545,1.1566561,0.047854695,2.2197986,-0.40145493,-0.14236902,-0.03123633,-0.50339854,3.3612897,-0.8168644,-0.22426915,-0.81382775,-1.657596,-2.7081969,-1.0811788,-1.1753247,-1.5577749,-1.6569189,-0.9049063
0.3621532,-1.8451447,0.14139332,-2.7118785,-0.8490616,-1.4888568,-1.480888,-2.1285388,1.0960038,4.1658125,0.15727502,2.9745595,-0.45026538,0.025940161,1.2355876,-1.7047641,-2.4834,-2.3803978,-0.6133377,-1.5883998
-1.0271515,-1.4291416,0.91240096,0.015726693,0.7879122,0.48097456,1.3942981,0.7499814,0.9441843,2.3862686,-1.2746742,1.309607,-0.4080519,1.0290315,-0.8344401,1.2473375,0.49947655,-1.6122345,-0.16763762,-0.64634335
2.768268,-1.3066697,-2.1111393,-2.6117811,-2.7735755,-2.4756358,-0.7167185,2.4210553,-4.069966,-2.7434664,-2.752438,-4.9836297,-4.689866,-6.561962,-0.9937775,1.6730611,-5.1012535,0.25465333,-6.4041066,-0.6338621
0.1474818,0.48997587,2.5279129,1.9973588,1.2920935,-0.5286324,-1.6124649,-2.8836462,-6.9903,-3.7953656,-7.248887,-0.83470833,-3.4384313,0.5148908,-3.6994176,-5.281166,-4.683165,-1.6693347,0.4955824,-1.6790415
0.09790128,-1.0251218,1.8570354,0.80739146,0.3471048,2.497542,1.4509631,0.019009998,0.11194603,0.787738,-1.0631014,0.47910932,-0.15952513,-0.6149146,-1.2118297,-0.87430286,-0.85251725,-0.54070175,0.56478477,0.34016216
0.04589165,-1.037586,-1.0539447,-1.5228609,-2.8600225,-3.2952235,-0.93011975,0.81310534,-2.0088136,-1.6335225,-1.5221918,-1.8051717,-3.1005695,-3.0016975,-2.207003,-0.40779367,-2.1802897,3.6195624,5.1156254,1.0312557
-1.612725,-0.09844803,1.732584,1.0293674,-0.7512504,-1.4807421,5.0804515,-2.1652772,0.5614466,-2.6253226,-2.7803128,0.14810783,-1.2389431,-1.9734019,-2.2663362,-2.9055934,-2.7435324,-2.9589422,-3.0700326,-1.1040651
0.12504846,0.46902576,-1.6180104,-1.7362406,-5.106776,1.9766241,0.41899636,3.5019174,-1.766858,2.2944741,-1.8427255,-4.455227,2.366573,7.227478,-1.1290547,0.5653579,-0.8726506,-2.1952298,0.3091586,1.6966197
-0.13323255,1.1023121,-0.8682121,-0.34005016,-7.0462265,-8.8403,-5.741188,-5.389662,-2.4924514,-4.357994,-8.875397,-3.3333993,-5.2184253,-7.8537045,-7.2639227,0.67345077,2.0278635,4.202921,1.5579277,-0.15539338
-0.5463703,-0.94480556,-0.4739372,-2.241135,2.9823167,2.6240425,0.76218456,-0.44868326,-1.2196681,-2.5447943,1.2681917,6.8881164,0.96122587,0.0002998039,-1.3908036,-5.255507,-2.5670896,-3.3557398,1.100392,0.13329402
0.22167195,0.8464462,-0.41822693,-0.6554572,-1.7647539,1.3641825,0.036890842,-1.0407807,-0.76954937,-0.71982354,-0.5699257,-0.8879062,-2.802658,-3.967349,-1.4217887,3.7514005,2.6068814,2.298162,0.7403339,-0.783791
0.034236103,-1.1008464,-0.749637,1.6038642,0.37094483,-1.752103,-1.6476816,-1.7550638,-3.0130053,-0.37943777,0.93219346,-1.8613389,-2.552583,-2.5285203,0.30671355,-1.15878,-5.2224746,-0.7432085,2.4263022,-1.4420911
-0.74214953,0.27493402,0.6702936,-2.0182421,1.2662926,-0.9509401,-1.1359655,-1.4963446,2.2732232,-3.79804,3.5960739,-0.9172031,-3.171005,2.8714626,-0.4506957,-1.0799357,4.4099607,-0.48522294,-0.86414593,0.8983465
-0.96325654,0.36356452,0.78066444,-0.86524796,4.0452223,-0.013641621,0.0031930767,0.4162965,-0.30331394,-3.6253066,-3.5454977,1.1934987,-3.6195154,-2.259416,-4.202102,-7.1411877,-2.8139944,0.35723084,-5.7760863,-0.15715846
0.40347537,0.51773083,1.0010221,-1.3738147,-0.8025025,0.6996554,-0.23145306,-0.55397826,-0.9039344,-0.76977164,-2.6490057,-1.2161164,0.59852576,2.0475583,-2.2363625,1.8533292,0.34884927,-2.3042758,-1.7404008,-2.241364
-0.4792356,-0.3282784,0.7440889,-0.7749448,-2.0246012,-1.8473166,6.162996,0.7400804,-0.16178238,1.9955589,0.86735344,-0.58301497,0.5870713,-1.171373,-2.972012,-1.7686855,-2.2882953,-0.15827273,0.28314808,-0.12317225
0.8272232,-0.70102,-1.4038653,-2.5621405,-2.8045468,-4.862659,-2.9208908,-0.9562164,6.262691,1.4185135,1.2258826,-2.7276344,0.34738314,-0.04544821,2.3806424,-1.959336,-1.8272113,-4.312767,0.216023,-0.6632692
-0.20421438,0.62779266,0.58166033,1.1411397,1.2069412,-0.03594408,0.25235522,1.4339606,0.60590166,1.4936475,-0.6009895,-2.1721783,-0.0032951494,-1.4609594,-1.4444095,-0.84438115,-0.12378745,-0.475373,-2.6794746,-0.55962926
-2.3356705,-0.7759182,-0.16836843,0.33893162,2.2128804,0.58302045,0.9500119,-1.1456804,-2.146289,-0.132107,-1.1877445,-0.71004415,-0.3097753,-0.4389247,-1.8934548,-1.484526,-5.3220086,-2.8799322,-0.98657197,-0.022278715
-3.4152427,-1.9662863,0.31383705,-0.85584515,0.69952947,0.318803,-1.6557138,-2.1408951,-6.0611405,-4.1562514,-4.972227,-2.8657184,-3.0515125,-3.3033137,-2.3639867,-6.711179,-4.8145776,-4.248961,-5.5567064,-0.7437455
0.13393854,1.0885371,1.1003418,1.3214796,1.0215245,2.2539876,0.6739104,-1.0315589,-1.6836871,5.385418,-0.5911602,-1.5630289,-0.08008047,-0.8406186,-1.8589526,3.9163492,-1.189897,-0.8042697,-4.5343456,-0.21082345
-1.4143779,-0.73625255,-1.2964557,-0.7487271,-0.5313472,-0.42260325,1.6052372,-1.021233,5.5794683,1.4028226,-1.1368856,-2.456111,0.7172519,0.05342742,-1.8330363,0.45661917,-0.6001954,-3.2307842,-0.98655385,0.2000672
-0.58196443,0.34174812,-0.29127857,-3.3248465,-4.615895,-0.23885609,2.1398053,3.7379065,-1.115391,1.7718068,1.3439698,-1.6998967,-2.3549857,-2.5960486,-2.4931695,-3.1442082,-3.568894,-2.4535832,-4.8148713,-1.5121825
0.97521394,1.5025147,0.4702435,-0.94980747,-1.1830302,0.71855783,-1.598034,-2.9997647,-3.5510063,-2.4527147,-1.9627154,-2.6289153,-1.2925702,2.0247743,-2.277421,-4.7558413,0.24213989,5.8338346,-0.44906116,-2.5557957
0.30423963,-0.10999486,-0.1291269,-0.87886864,3.3545403,-2.965233,0.87736255,-1.209169,-2.2790544,7.6644015,-0.14877492,-2.7452242,-1.4662385,-2.1847804,4.8444343,-1.6222484,-4.5857425,-1.8021673,0.61675763,0.73635906